// Toy 1D neural preconditioner weights (see python/neural/train_npo_1d.py).
// Two-scale conv net trained with the condition/residual losses of arXiv:2502.01337.
const NPO_WEIGHTS = {"fine": [{"w": [[[-0.1501091, 0.06999747, -0.2902084, -0.2855147, -0.2013963, 0.1404965, 0.02241183, 0.1820508, -0.01679422]], [[-0.2966362, -0.3791866, -0.2184091, -0.3002177, -0.263715, -0.2757884, -0.1796381, -0.04233706, -0.07643852]], [[0.01655663, -0.07075892, 0.2796077, 0.3483859, 0.1127472, 0.3507543, 0.09525172, 0.2297287, 0.4366685]], [[-0.4693578, -0.2239285, -0.1764304, -0.2482465, 0.3019388, -0.1401015, -0.2381487, -0.3843874, -0.4527996]], [[-0.166224, 0.2071719, 0.1383981, 0.1687094, 0.1093953, -0.1730678, 0.1556774, -0.3432264, -0.3765851]], [[0.5434338, 0.5223857, 0.4513881, 0.1583435, 0.07921164, 0.4888321, 0.5438843, 0.516841, 0.6934201]], [[0.01242431, -0.2934041, -0.006872835, -0.263276, -0.2545174, -0.2376175, 0.1207455, 0.07056657, -0.2693116]], [[0.7237335, 0.5270004, 0.296115, 0.4941688, 0.6612636, 0.5823776, 0.4498079, -0.05569085, 0.4613993]]], "b": [0.3160438, 0.2620988, 0.5773285, 0.286268, 0.3583067, -0.2078849, 0.1012508, 0.3933949], "k": 9}, {"w": [[[-0.1361159, 0.07892478, 0.06217718, -0.1423864, -0.00369175, -0.04069235, -0.03809845, -0.07589304, 0.02553087], [-0.0954078, 0.01701831, 0.03392434, 0.05886582, 0.01859094, -0.1367238, -0.09687757, 0.03902346, 0.004456069], [-0.1173103, -0.09413115, 0.08454283, 0.05351266, -0.07938092, -0.05130595, -0.1336166, -0.02350124, -0.1081681], [-0.1155467, -0.03156544, -0.007556268, -0.07437903, 0.04542412, -0.09155143, 0.0868402, 0.06139635, -0.1202745], [-0.05243901, -0.01957572, -0.006490318, 0.002122178, 0.02383274, -0.01067034, -0.08089086, 0.03457952, -0.1327362], [-0.06985115, -0.02950166, -0.08243592, -0.05641659, -0.1146078, -0.02506872, 0.02519144, -0.07677598, -0.006048045], [0.05505056, -0.03614557, -0.02190331, -0.03201859, 0.00385241, 0.05540308, 0.09052704, 0.06823435, 0.09186436], [-0.02653937, -0.1058682, -0.08000353, 0.06357114, -0.01885656, -0.0179828, -0.09031071, -0.1367514, -0.09946732]], [[0.01543931, 0.05168541, 0.09339853, -0.1501406, 0.05969782, -0.0715513, 0.03400879, -0.05135539, -0.009648446], [-0.05679832, -0.1534627, -0.15409, 0.003102157, -0.02942019, 0.007267348, 0.06604305, -0.1181208, -0.04874507], [0.2408081, -0.04427876, 0.2657096, 0.1874723, -0.05174033, 0.1908047, -0.03725848, 0.08237682, 0.1533558], [-0.175799, -0.01636983, -0.105832, 0.1497203, -0.1065598, 0.01086376, 0.08984771, -0.1327467, 0.02351796], [-0.07080457, 0.09681652, 0.05163081, 0.07381437, -0.04028944, 0.08818224, -0.01195188, -0.217682, 0.04539627], [0.7027328, 0.4582361, 0.5693402, 0.4721337, 0.6446482, 0.4375486, 0.2217272, 0.3797188, 0.03396236], [-0.02972157, 0.07000287, 0.002490776, -0.01101331, -0.03314354, 0.05895201, 0.009873299, -0.07819544, 0.03651868], [0.7361569, 0.3959728, 0.5454808, 0.3526526, 0.3916903, 0.4184976, 0.3473214, 0.2180184, -0.07997801]], [[-0.1201428, 0.04069467, -0.08394309, -0.03345373, -0.0575542, -0.03546087, -0.01671969, 0.07919581, -0.003296376], [0.08754925, 0.05409257, -0.07450713, 0.03484502, -0.1013192, -0.06796192, 0.01664985, 0.02090067, 0.07040246], [-0.05595277, -0.01782327, 0.04265783, -0.1319869, 0.06719455, -0.1154545, -0.01638873, -0.03804967, -0.08008197], [-0.002427123, 0.07943858, -0.05246052, -0.08797919, -0.06159049, -0.116808, 0.03518424, -0.07461265, -0.09665983], [-0.06789421, 0.04975482, 0.04439882, 0.07244156, 0.02473368, -0.03935753, -0.05093448, 0.01681551, 0.07887656], [0.0320428, -0.05576072, -0.05539915, -0.1114246, 0.0254615, -0.066136, -0.1050732, 0.1033409, -0.07653385], [-0.01340693, 0.03376359, 0.00375454, -0.09730537, -0.09526163, 0.07592461, 0.00120724, 0.07978873, -0.05749197], [0.03471369, -0.02694975, -0.005240974, -0.07177655, 0.03985736, 0.03726051, -0.0024311, -0.02650497, -0.07264695]], [[0.08254236, -0.1129541, 0.07099642, -0.03669111, -0.01068917, 0.04193784, -0.03495877, -0.02025308, 0.005692664], [-0.1011947, -0.007692613, 0.1009691, 0.095103, -0.02290836, -0.06304502, -0.09375598, 0.005219381, -0.08288698], [0.0107829, 0.04619036, 0.04067172, -0.07809642, 0.09127323, 0.1261455, 0.08042834, 0.1929483, 0.01713651], [0.04402735, 0.08799549, 0.05436774, 0.07028092, -0.1249591, 0.1598272, -0.001036442, -0.07501338, -0.1300632], [0.09480491, 0.143533, -0.1920621, -0.03297351, 0.006397585, 0.1501111, 0.01132197, 0.1062593, 0.1152069], [-0.3381703, 0.1593987, 0.2763894, 0.2458958, 0.6252661, 0.4647185, 0.3237036, 0.4905289, 0.2175327], [0.02105397, 0.04949145, -0.02481961, 0.0375866, 0.07697053, 0.08264408, -0.1110685, 0.03904395, -0.06845448], [-0.2230432, -0.05552245, -0.2025657, -0.06504545, 0.3379568, 0.4464291, 0.5070689, 0.6946059, 0.2838103]], [[-0.06148341, -0.01445739, -0.08196665, 0.03833593, -0.06853034, -0.06666395, -0.1076858, -0.07915211, 0.1461141], [0.1087133, 0.09750855, 0.07006682, 0.113172, -0.04641481, 0.08465367, 0.09984181, 0.1219707, 0.1541241], [0.1463388, 0.0887175, -0.01771454, 0.1008444, -0.00436737, -0.1003034, -0.1260022, -0.1098935, -0.09691016], [0.06877517, 0.2442165, 0.1281727, 0.01573482, 0.1146742, 0.09339148, -0.01815432, 0.01274761, 0.1801073], [0.06597091, 0.04028855, 0.297151, 0.2892938, 0.1365719, 0.06272197, -0.07482641, -0.04887871, 0.02829777], [0.07460608, 0.08039149, 0.1003998, -0.08593147, 0.1196458, 0.1367508, -0.2659517, 0.003622983, -0.1584992], [0.05648095, 0.02570086, 0.05939352, -0.08145357, -0.02568868, -0.07501264, -0.01752946, 0.06601093, -0.07702683], [0.08069269, 0.1379635, 0.3138038, 0.196604, 0.1137444, 0.2410164, -0.1595614, -0.08755341, -0.2307011]], [[-0.03459011, 0.01622233, 0.07082659, -0.07876708, -0.3774418, 0.2481639, 0.2269065, 0.08854842, -0.1107034], [0.1396049, 0.2034541, 0.07962919, 0.09650623, 0.1119741, 0.1420082, 0.3909175, 0.1438598, 0.2070371], [-0.3022486, -0.2081567, -0.2366808, -0.1620976, -0.09241366, -0.1509205, -0.001287585, -0.1572913, -0.06695508], [0.155739, 0.07088587, 0.144386, 0.2321003, 0.1214734, 0.1381912, 0.2971789, 0.3757896, 0.330344], [-0.03118712, 0.1561385, 0.02153094, -0.09265062, -0.167411, -0.02790523, -0.0168703, 0.0953489, 0.2056428], [-0.2396867, -0.0152293, 0.2948404, 0.298361, 0.2040789, 0.2805013, 0.209134, 0.008847314, -0.3186378], [0.3013545, 0.208461, -0.132265, -0.1598125, 0.157287, 0.2884, 0.1067598, 0.2606132, 0.1248751], [-0.2758884, -0.03421484, 0.1261863, 0.2489751, 0.2671573, 0.341784, 0.232349, 0.1609859, 0.01135268]], [[0.09507591, 0.04660495, 0.03761861, 0.1538154, -0.0263411, -0.02571848, 0.08088598, -0.009301678, -0.007875097], [0.107188, 0.152348, 0.02782005, -0.01321993, -0.01284648, 0.08886331, 0.03117125, 0.03017253, -0.03362582], [0.1179471, 0.1185424, -0.08552434, -0.151206, -0.1727696, -0.0888224, -0.05566863, -0.1472595, -0.1458478], [0.1625033, 0.09609063, 0.09288607, 0.007710473, -0.03686392, -0.00120448, 0.1560958, 0.009400461, 0.113808], [0.06293038, 0.3161289, 0.03416335, -0.185837, 0.006869981, -0.2316417, -0.05462414, -0.0496723, 0.1373263], [-0.01661557, 0.1368851, -0.04422661, -0.05182345, 0.1093197, 0.03069928, 0.03153821, 0.009433168, -0.2079542], [0.1519572, 0.2538239, 0.2838917, 0.1340649, 0.1911821, 0.1402898, 0.05256958, 0.05481011, 0.0553047], [0.02981848, 0.1224959, 0.06985942, 0.174217, 0.1670084, 0.1153152, 0.03936179, -0.05119541, -0.2716392]], [[-0.03191155, -0.0576748, 0.0002591523, 0.04835507, 0.06902578, 0.06402522, -0.04237971, -0.1162145, -0.1299393], [0.08370764, 0.02718948, 0.02436681, -0.1277166, 0.08160318, 0.08604307, 0.07954547, -0.1246808, -0.07072599], [-0.1056362, 0.0846407, -0.07560521, -0.0795962, 0.03665209, -0.0808892, -0.08345262, -0.03655226, -0.03765184], [-0.1199006, 0.0725706, -0.07946791, 0.01639043, 0.076367, 0.03337169, -0.009292535, 0.07292552, -0.01016093], [-0.08136583, 0.08216239, 0.003155196, -0.144166, -0.05672419, -0.06334664, 0.08092991, -0.006347496, -0.1325124], [-0.007408517, 0.07401203, 0.03061778, 0.03726505, 0.01094521, 0.06195191, -0.05406021, -0.0468812, -0.1101565], [-0.09652514, 0.02928592, -0.05102754, -0.006214535, 0.05428241, -0.0152134, -0.05996728, 0.0894226, -0.05329475], [0.1221202, -0.1291672, -0.002979209, 0.06410734, -0.06616601, 0.1192931, -0.105546, -0.1003785, -0.07868298]]], "b": [-0.006763811, 0.1354945, -0.07427765, 0.05833201, -0.03376657, -0.1701027, 0.06111702, -0.1176882], "k": 9}, {"w": [[[-0.01509657, 0.1413938, 0.008199139, 0.07022841, -0.0126155, 0.07114989, -0.08919761, -0.04440711, -0.03552992], [0.09134371, 0.1077952, 0.1169116, 0.04597497, 0.1041218, 0.3074052, 0.1376675, 0.09424067, 0.07868747], [-0.03054285, 0.01159552, 0.03467925, 0.09850962, -0.03662343, -0.07972659, 0.04038535, 0.05326633, 0.02933208], [-0.01770476, 0.0519627, 0.1444035, 0.2278523, -0.1239636, 0.08027026, -0.1105949, -0.02157539, 0.01990531], [-0.1611689, -0.1609688, -0.2038729, -0.08209046, -0.09789071, -0.09707195, 0.08436836, 0.1010066, -0.01102946], [-0.02342749, -0.1358334, -0.254468, -0.5201368, -0.3356804, -0.2410149, -0.1269408, -0.1492459, -0.1088452], [-0.01088137, -0.04296419, -0.06811763, -0.2515542, -0.1819004, -0.4590005, -0.5240034, -0.234529, -0.09874021], [-0.06863753, 0.08926783, -0.07127767, -0.004221861, 0.07299431, -0.008073799, -0.009484302, -0.06355926, 0.08076216]]], "b": [0.01468945], "k": 9}], "coarse": [{"w": [[[-0.3270878, 0.1309488, -0.3179766, -0.3548673, 0.02724388]], [[0.2086981, -0.2951127, 0.1153482, 0.3351775, 0.08086772]], [[-0.2345908, -0.04902349, -0.1407313, -0.3596147, 0.0001847794]], [[0.3364992, 0.3767844, 0.04172534, 0.1015725, -0.1936084]], [[0.1475319, -0.3350849, -0.45787, 0.04997233, 0.3012977]], [[-0.5931625, 0.3425223, 0.1893771, -0.2350565, -0.1647766]], [[-0.1099274, -0.7264765, -0.1457918, 0.4134455, -0.7279242]], [[0.2451617, 0.232796, 0.2773643, -0.2851197, 0.4454252]]], "b": [-0.265091, 0.4039418, -0.4291866, -0.3984539, 0.226773, 0.08800265, 0.07418391, -0.2476483], "k": 5}, {"w": [[[-0.06632489, -0.04623052, -0.1540275, 0.008216972, 0.02796385], [-0.04262189, 0.0005588661, 0.1106243, 0.01660411, -0.08163325], [-0.06507125, -0.1011621, -0.1096075, -0.02546422, -0.0279649], [0.07033893, -0.0675837, 0.126049, -0.1109454, 0.0004493894], [0.09015655, 0.1057279, -0.1285852, 0.01099853, -0.002258877], [-0.07702282, -0.06298756, -0.00687989, -0.1577625, 0.01017541], [0.08350576, -0.2334984, 0.01325247, 0.02398911, 0.09738284], [0.1565812, -0.04833041, 0.08592037, -0.04522519, -0.02309617]], [[-0.02679574, -0.000982297, -0.05973043, 0.03705982, 0.005957793], [0.1002268, -0.03200309, 0.01585569, -0.05881684, -0.1324131], [0.06398351, 0.02023193, -0.06332204, -0.05345909, 0.04135015], [-0.02858966, 0.1033236, 0.008956064, 0.05972541, 0.06888963], [-0.03879583, 0.06841032, 0.1166775, 0.007276142, 0.03094176], [0.005745161, 0.1094729, -0.06675494, -0.08404857, 0.06889869], [-0.1376088, 0.002534954, -0.07271516, 0.1043605, -0.1472102], [0.09586959, 0.156431, 0.03199278, -0.0105346, 0.1556394]], [[-0.06757034, -0.01267023, -0.06923885, -0.02182624, 0.0343643], [0.02111791, -0.02986375, -0.1580887, 0.008096077, -0.004683643], [0.02378614, 0.1211548, 0.1536882, -0.09380619, -0.009859104], [-0.06335206, -0.145725, -0.115053, 0.1483995, 0.09219006], [0.08493105, 0.08787072, -0.1256182, 0.016605, 0.1471589], [-0.08824113, 0.1406572, 0.04155841, 0.11124, -0.06773403], [0.0728933, -0.140166, -0.01003952, 0.05273907, 0.04741748], [0.132311, 0.1553717, 0.1438452, 0.1061564, 0.1111639]], [[-0.02040139, -0.1227038, -0.05869617, -0.01775058, -0.08544262], [0.09930373, -0.01224171, -0.0303511, 0.01418746, 0.134429], [0.05759003, -0.1386563, -0.1147718, 0.06968864, 0.02154764], [0.07711082, -0.1579115, -0.1459185, 0.09695961, 0.1011369], [-0.2158, -0.03219081, -0.1939469, 0.19337, 0.08797915], [0.3910771, 0.06209613, -0.1897718, 0.03863171, -0.06093686], [0.5725074, -0.05723448, -0.1728776, 0.1120744, 0.3357555], [0.0353229, -0.1035701, -0.06280211, 0.02799704, -0.06216722]], [[-0.02501724, -0.1498642, -0.1490813, 0.06124748, -0.0669262], [-0.09619484, -0.0804031, -0.1472828, -0.1444103, 0.0765966], [0.08036014, 0.02106132, -0.08637124, 0.05260464, 0.0071033], [-0.1129997, 0.0340245, 0.1439696, -0.1555218, -0.1572272], [0.02025833, 0.1010511, -0.1142224, 0.01679363, 0.09313814], [0.0487491, 0.01622377, 0.1397474, 0.08500741, -0.08892752], [0.01366681, 0.06277916, 0.121466, -0.1752567, 0.06762438], [-0.04590549, -0.1548285, 0.03509717, -0.08607936, 0.02240666]], [[-0.102655, -0.1189853, -0.01341613, -0.05311451, 0.09247524], [0.08775556, 0.1147876, -0.02518597, -0.09273466, 0.1936541], [0.008640143, 0.02967666, -0.050853, 0.0005674384, -0.03040105], [-0.01344242, -0.1233097, -0.0009723827, -0.1312415, -0.03401517], [0.1404846, -0.1435203, -0.108978, -0.02707103, 0.06330362], [-0.03188067, 0.2115384, 0.06948906, -0.290734, -0.06170977], [0.3812467, 0.2528518, -0.04023659, 0.005005023, 0.5145094], [0.09004227, -0.09878163, -0.09175245, 0.06988606, -0.0110784]], [[-0.1493383, -0.0911661, 0.06412037, -0.05362839, 0.1091348], [0.1249953, 0.02300081, -0.01250281, -0.05018964, -0.007995161], [0.02878003, -0.1207755, -0.03778853, -0.1315193, 0.09704316], [-0.1006927, 0.144444, -0.04075872, -0.09057953, 0.07596631], [0.02357147, 0.1094869, 0.06600776, -0.1523173, 0.1000055], [-0.02977503, -0.06988176, 0.1004108, 0.1153172, -0.1389711], [-0.01429719, 0.1298442, 0.06123542, 0.1332061, -0.05418542], [-0.08722232, 0.1359636, 0.06590549, 0.1517866, -0.06604363]], [[-0.1015197, -0.01853299, -0.1488769, 0.06197672, 0.116623], [0.01214874, -0.04141495, 0.05275138, -0.1266114, 0.1283035], [-0.1572195, -0.1514644, -0.03736257, 0.1291544, 0.01583128], [0.06072296, -0.1158986, 0.05766188, -0.01766819, 0.06337577], [0.0863195, 0.04357772, -0.03864903, -0.03581249, -0.1254159], [-0.0819105, 0.07749646, -0.08951438, 0.0716498, -0.08734068], [-0.04522381, 0.02967037, -0.1691329, -0.02618532, -0.04138593], [-0.01420438, -0.03160763, 0.1246534, 0.116686, -0.1071628]]], "b": [0.03593515, -0.1240218, -0.1346057, -0.0006258555, -0.01569176, -0.09901914, -0.1525014, -0.08659765], "k": 5}, {"w": [[[0.100584, -0.09316738, -0.1045438, 0.04748223, -0.09220321], [-0.1385204, -0.0609191, -0.02545647, -0.1436789, -0.105577], [0.01036719, -0.1490969, -0.02222361, -0.1020946, -0.1096104], [0.09436709, -0.1087943, -0.1380985, 0.09947124, 0.07445225], [0.1260955, -0.06011591, -0.05836298, -0.03263294, 0.0007999553], [0.1641958, -0.2191601, 0.07311168, 0.1083258, -0.02024955], [-0.08034412, 0.07641134, -0.1515024, 0.037466, -0.1224096], [0.1022847, -0.1114706, 0.1215976, -0.1276553, -0.1157455]]], "b": [0.03225417], "k": 5}], "nc": 16, "train_step": 550, "fcg_iters_at_export": 38};
if (typeof module !== 'undefined') module.exports = NPO_WEIGHTS;
